1
cessation 0.369965 0.758751 -0.493914 0.360169 0.688908 0.409484 -0.504186 -0.207639 0.119873 -0.759720 0.254407 0.200454 0.506645 -0.160531 0.207879 1.149315 0.000637 0.587801 -0.509176 -0.300241 0.733868 0.237485 0.420764 -0.642768 -0.180432 -0.670286 -0.270854 -0.008767 -0.280445 0.150333 0.002726 -0.207473 0.198352 -0.023464 0.638527 0.548201 0.380133 -0.170300 0.502948 0.143107 -0.633391 -0.170456 -0.499475 -1.211255 0.007175 0.662291 0.511710 -0.069822 -0.174378 0.215430 -0.606729 -0.333130 0.480600 0.004709 0.537186 0.256387 -0.322538 0.891128 0.026458 0.373223 -0.350084 0.367895 0.354104 -0.061436 -0.256572 -0.439851 0.021011 0.330358 0.056435 -0.371669 -0.097204 0.650188 -0.149727 -0.152000 0.018668 -0.051467 0.229811 1.091860 -0.501110 0.094752 0.383186 -0.108869 0.091213 -0.272155 -0.277865 -0.142596 -0.005059 -0.091590 -0.171142 -0.033947 -0.260399 -0.020472 -0.805448 -0.386729 0.488638 -0.021263 0.777890 -0.309078 0.056996 -0.161745 
